network unknown {
}
variable f_exp_c {
    type discrete [ 3 ] { High, Low, Moderate };
}
variable pop_d_c {
    type discrete [ 3 ] { High, Low, Moderate };
}
variable rc {
    type discrete [ 7 ] { Arterial, Collector, Expressway, Freeway, Local, Ramp, Resource };
}
variable rp {
    type discrete [ 3 ] { High, Low, Moderate };
}
probability ( f_exp_c | pop_d_c, rc, rp ) {
    ( High, Arterial, High ) 0.5, 0.0, 0.5;
    ( High, Arterial, Low ) 0.5, 0.0, 0.5;
    ( High, Arterial, Moderate ) 0.5, 0.0, 0.5;
    ( High, Collector, High ) 0.18181818181818182, 0.09090909090909091, 0.7272727272727273;
    ( High, Collector, Low ) 0.2727272727272727, 0.2727272727272727, 0.45454545454545453;
    ( High, Collector, Moderate ) 0.18181818181818182, 0.09090909090909091, 0.7272727272727273;
    ( High, Expressway, High ) 0.3333333333333333, 0.3333333333333333, 0.3333333333333333;
    ( High, Expressway, Low ) 0.3333333333333333, 0.3333333333333333, 0.3333333333333333;
    ( High, Expressway, Moderate ) 0.3333333333333333, 0.3333333333333333, 0.3333333333333333;
    ( High, Freeway, High ) 0.0, 0.0, 1.0;
    ( High, Freeway, Low ) 0.0, 0.0, 1.0;
    ( High, Freeway, Moderate ) 0.0, 0.0, 1.0;
    ( High, Local, High ) 0.12345679012345678, 0.2716049382716049, 0.6049382716049383;
    ( High, Local, Low ) 0.13580246913580246, 0.2962962962962963, 0.5679012345679012;
    ( High, Local, Moderate ) 0.13580246913580246, 0.2839506172839506, 0.5802469135802469;
    ( High, Ramp, High ) 0.3333333333333333, 0.3333333333333333, 0.3333333333333333;
    ( High, Ramp, Low ) 0.3333333333333333, 0.3333333333333333, 0.3333333333333333;
    ( High, Ramp, Moderate ) 0.3333333333333333, 0.3333333333333333, 0.3333333333333333;
    ( High, Resource, High ) 0.3333333333333333, 0.3333333333333333, 0.3333333333333333;
    ( High, Resource, Low ) 0.3333333333333333, 0.3333333333333333, 0.3333333333333333;
    ( High, Resource, Moderate ) 0.3333333333333333, 0.3333333333333333, 0.3333333333333333;
    ( Low, Arterial, High ) 0.06557377049180328, 0.22950819672131148, 0.7049180327868853;
    ( Low, Arterial, Low ) 0.06557377049180328, 0.2459016393442623, 0.6885245901639344;
    ( Low, Arterial, Moderate ) 0.08196721311475409, 0.2459016393442623, 0.6721311475409836;
    ( Low, Collector, High ) 0.04864864864864865, 0.15675675675675677, 0.7945945945945946;
    ( Low, Collector, Low ) 0.032432432432432434, 0.1891891891891892, 0.7783783783783784;
    ( Low, Collector, Moderate ) 0.03783783783783784, 0.15675675675675677, 0.8054054054054054;
    ( Low, Expressway, High ) 0.08108108108108109, 0.10810810810810811, 0.8108108108108109;
    ( Low, Expressway, Low ) 0.05405405405405406, 0.0945945945945946, 0.8513513513513513;
    ( Low, Expressway, Moderate ) 0.06756756756756757, 0.0945945945945946, 0.8378378378378378;
    ( Low, Freeway, High ) 0.07692307692307693, 0.0, 0.9230769230769231;
    ( Low, Freeway, Low ) 0.15384615384615385, 0.0, 0.8461538461538461;
    ( Low, Freeway, Moderate ) 0.07692307692307693, 0.0, 0.9230769230769231;
    ( Low, Local, High ) 0.03211009174311927, 0.3073394495412844, 0.6605504587155964;
    ( Low, Local, Low ) 0.03669724770642202, 0.3302752293577982, 0.6330275229357798;
    ( Low, Local, Moderate ) 0.027522935779816515, 0.3348623853211009, 0.6376146788990825;
    ( Low, Ramp, High ) 0.07692307692307693, 0.0, 0.9230769230769231;
    ( Low, Ramp, Low ) 0.07692307692307693, 0.07692307692307693, 0.8461538461538461;
    ( Low, Ramp, Moderate ) 0.07692307692307693, 0.07692307692307693, 0.8461538461538461;
    ( Low, Resource, High ) 0.0, 0.0, 1.0;
    ( Low, Resource, Low ) 0.0, 0.0, 1.0;
    ( Low, Resource, Moderate ) 0.0, 0.0, 1.0;
    ( Moderate, Arterial, High ) 0.1388888888888889, 0.08333333333333333, 0.7777777777777778;
    ( Moderate, Arterial, Low ) 0.19444444444444445, 0.19444444444444445, 0.6111111111111112;
    ( Moderate, Arterial, Moderate ) 0.16666666666666666, 0.08333333333333333, 0.75;
    ( Moderate, Collector, High ) 0.0708955223880597, 0.1865671641791045, 0.7425373134328358;
    ( Moderate, Collector, Low ) 0.0708955223880597, 0.24253731343283583, 0.6865671641791045;
    ( Moderate, Collector, Moderate ) 0.06716417910447761, 0.22388059701492538, 0.7089552238805971;
    ( Moderate, Expressway, High ) 0.043478260869565216, 0.10869565217391304, 0.8478260869565217;
    ( Moderate, Expressway, Low ) 0.021739130434782608, 0.10869565217391304, 0.8695652173913043;
    ( Moderate, Expressway, Moderate ) 0.021739130434782608, 0.10869565217391304, 0.8695652173913043;
    ( Moderate, Freeway, High ) 0.0, 0.0, 1.0;
    ( Moderate, Freeway, Low ) 0.0, 0.0, 1.0;
    ( Moderate, Freeway, Moderate ) 0.0, 0.0, 1.0;
    ( Moderate, Local, High ) 0.024822695035460994, 0.43380614657210403, 0.541371158392435;
    ( Moderate, Local, Low ) 0.026004728132387706, 0.39361702127659576, 0.5803782505910166;
    ( Moderate, Local, Moderate ) 0.030732860520094562, 0.41371158392434987, 0.5555555555555556;
    ( Moderate, Ramp, High ) 0.25925925925925924, 0.1111111111111111, 0.6296296296296297;
    ( Moderate, Ramp, Low ) 0.2222222222222222, 0.07407407407407407, 0.7037037037037037;
    ( Moderate, Ramp, Moderate ) 0.18518518518518517, 0.07407407407407407, 0.7407407407407407;
    ( Moderate, Resource, High ) 0.3333333333333333, 0.3333333333333333, 0.3333333333333333;
    ( Moderate, Resource, Low ) 0.3333333333333333, 0.3333333333333333, 0.3333333333333333;
    ( Moderate, Resource, Moderate ) 0.3333333333333333, 0.3333333333333333, 0.3333333333333333;

}
probability ( pop_d_c ) {
    table 0.05023796932839767, 0.29984135378106824, 0.6499206768905341 ;
}
probability ( rc | pop_d_c ) {
    ( High ) 0.021052631578947368, 0.11578947368421053, 0.0, 0.010526315789473684, 0.8526315789473684, 0.0, 0.0;
    ( Low ) 0.10758377425044091, 0.3262786596119929, 0.13051146384479717, 0.02292768959435626, 0.3844797178130511, 0.02292768959435626, 0.005291005291005291;
    ( Moderate ) 0.029292107404393815, 0.21806346623270953, 0.03742880390561432, 0.004882017900732303, 0.6883645240032547, 0.021969080553295363, 0.0;

}
probability ( rp ) {
    table 0.04, 0.8, 0.16 ;
}
